-0.22164309870967241
-0.27924684947192185
1.0470793116286052
-0.3375971704469085
0.14378879966815483
0.13998176571765916
0.06211583580312699
-0.14929260977567593
-0.15073313439525945
0.4494057297130697
0.1568791243606524
-0.41891602513020154
0.27341816872042474
0.2570261704499679
0.243331615400949
-0.304256211732416
0.20205311681032304
0.062360898404007034
0.0827776495653089
0.07814747448147934
-0.4222997172655799
0.016978364473381146
0.26767618055485154
-0.3553355789509875
0.30925809780155245
-0.18374348527589202
-0.23846115818413524
0.13181828351655148
-0.18361952812730076
0.08355270877107764
0.17062217193031137
-0.020624790537433345
0.19959357693642776
-0.0014021704491852804
0.09193577671091051
0.027804646487826913
-0.224201967505794
0.3518007352989181
0.5094887053123587
0.12624392836821066
-0.561116882729071
-0.29082321712861126
-0.21282831097532506
0.04633210295286553
0.014870407734944621
0.19200122388979343
-0.24780759024299526
-0.1929864891483689
0.33177638951597865
-0.1175473967000189
-0.02341699723629667
0.013589473941755907
0.41302690503633843
-0.14835972547203105
